tree
version=v4
num_class=1
num_tree_per_iteration=1
label_index=0
max_feature_idx=12
objective=regression
feature_names=Column_0 Column_1 Column_2 Column_3 Column_4 Column_5 Column_6 Column_7 Column_8 Column_9 Column_10 Column_11 Column_12
feature_infos=[0.15330768690921551:5.932928132922024] [-0.1674929174933347:0.23529832082886751] [0.27347770817642914:1.935688873624573] [-0.54373504324431099:1.5496831212181881] [6.9336263231371232e-05:19.687380903420333] [-0.23585521136001408:0.14366675032200565] [0:1.0178571428389669] [-6542.6162789936907:47427.499999881431] [-0.023084072257734262:0.028938722596129614] [-0.31646688181957894:0] [-190.26139289871003:196.88911713592316] [-50:50] [0.0010012515644555694:0.5]
tree_sizes=2987 3197 3189 3182 3149 3193 3202 3203 3183 3176 3200 3176 3186 3185 3189 3199 3182 3196 3182 3198 3215

Tree=0
num_leaves=31
num_cat=0
split_feature=12 11 0 8 2 0 8 0 0 11 8 8 9 8 12 9 8 2 8 8 12 11 9 0 2 0 11 10 10 10
split_gain=905.057 191.084 81.613 74.4627 61.584 55.3005 46.2683 115.657 46.5383 44.7202 41.3628 40.7936 35.7231 34.4147 31.8984 24.8336 27.4939 24.6995 24.4441 19.6911 18.948 23.977 18.6658 18.5975 20.9897 18.2283 17.0556 19.8259 16.6003 16.4121
threshold=1.0000000180025095e-35 0.96419281465359863 0.73055156978126889 0.0048013452629132739 1.0111348765899313 0.75914829325561384 -0.0020414289314229085 0.83189391652635269 0.5327529447559064 1.7460539994771529 0.016963256692530852 -0.0067324834395418318 -0.11938662816219102 -0.0067324834395418318 0.10781674292303688 -0.095114572997397909 -0.0053361371632855851 1.309071289835892 0.0095176139944818001 -0.014404517255218139 0.031060724464022818 5.8844304085780248 -0.03867154206580823 0.89973691184805082 1.0686895958270495 0.82325938479411798 -9.1081615861093255 -32.943184730717014 17.298473732009239 23.072339801746232
decision_type=10 8 2 2 2 2 2 2 2 8 2 2 2 2 10 2 2 2 2 2 10 8 2 2 2 2 10 10 10 10
left_child=1 5 13 4 25 11 7 8 -3 14 -8 -1 -10 -2 -5 -6 -17 26 -16 -9 -11 -22 -21 -12 -25 -4 27 -7 -13 -28
right_child=2 6 3 9 15 17 10 19 12 20 23 28 -14 -15 18 16 -18 -19 -20 22 21 -23 -24 24 -26 -27 29 -29 -30 -31
leaf_value=0.50640016219448303 0.50457149879136054 0.50892889562683075 0.50103527727069075 0.49987330560087145 0.50472765667033459 0.50300059332260505 0.50239372059628407 0.50339410166971221 0.50055777357505282 0.50030949311846307 0.4991822098281401 0.50241015576175618 0.50379810851899853 0.50138903204026442 0.50029617901261059 0.49770223407282654 0.49934268802889648 0.49634344631742749 0.50252038972911917 0.50050894770845478 0.50385651242021579 0.50153902018226748 0.50144720961670031 0.50053372381344374 0.50277030884514484 0.50007379363621807 0.50087006465167394 0.49820320537156754 0.49745113026040444 0.4990230134880434
leaf_weight=2503 4862 1371 20792 46105 717 935 595410 3331 3721 9160 4050 4312 17259 8238 9226 10636 68170 1216 8584 33798 4616 30986 43847 9072 6469 121551 74292 4515 707 4599
leaf_count=2503 4862 1371 20792 46105 717 935 595410 3331 3721 9160 4050 4312 17259 8238 9226 10636 68170 1216 8584 33798 4616 30986 43847 9072 6469 121551 74292 4515 707 4599
internal_value=0.501538 0.502085 0.500248 0.500156 0.499841 0.500806 0.50225 0.501663 0.503573 0.500799 0.502349 0.503272 0.503223 0.50257 0.50029 0.499172 0.499121 0.500589 0.501368 0.501136 0.501526 0.501839 0.501039 0.500993 0.501465 0.500214 0.50065 0.499027 0.501711 0.500762
internal_weight=1.15505e+06 811407 343643 330543 221866 93079 718328 103327 22351 108677 615001 7522 20980 13100 63915 79523 78806 85557 17810 80976 44762 35602 77645 19591 15541 142343 84341 5450 5019 78891
internal_count=1155050 811407 343643 330543 221866 93079 718328 103327 22351 108677 615001 7522 20980 13100 63915 79523 78806 85557 17810 80976 44762 35602 77645 19591 15541 142343 84341 5450 5019 78891
is_linear=0
shrinkage=1


Tree=1
num_leaves=31
num_cat=0
split_feature=12 11 0 8 2 0 1 8 1 11 8 8 8 8 12 9 8 2 8 8 1 0 9 11 0 8 11 9 0 11
split_gain=851.569 179.792 76.7896 70.0617 57.944 52.0664 44.0834 73.1076 52.334 42.0771 36.8269 36.111 34.0177 32.381 30.0132 23.3665 25.8686 23.3324 22.9995 22.5409 19.505 19.0061 18.6803 17.7156 17.1508 16.1498 15.9735 15.9553 15.9213 15.6149
threshold=1.0000000180025095e-35 0.96419281465359863 0.73055156978126889 0.0048013452629132739 1.0111348765899313 0.75079814520723775 -0.03481732838378044 -0.0020414289314229085 -0.0064274479044590894 1.7460539994771529 0.016963256692530852 -0.0067324834395418318 -0.014404517255218139 -0.0067324834395418318 0.10781674292303688 -0.095114572997397909 -0.0053361371632855851 1.309071289835892 0.0095176139944818001 -0.0029155691960836435 0.013244049756063563 0.5327529447559064 -0.026898167748303607 2.0718947522891393 0.82325938479411798 -7.8220763444094652e-05 5.8844304085780248 -0.054707239340306017 0.89973691184805082 -9.1081615861093255
decision_type=10 8 2 2 2 2 2 2 2 8 2 2 2 2 10 2 2 2 2 2 2 2 2 8 2 2 10 2 2 10
left_child=1 5 13 4 24 11 19 8 12 14 26 -1 -8 -2 -5 -6 -17 29 -16 21 -11 -3 -10 -22 27 -26 -9 -4 -12 -7
right_child=2 6 3 9 15 17 7 10 22 20 28 -13 -14 -15 18 16 -18 -19 -20 -21 23 -23 -24 -25 25 -27 -28 -29 -30 -31
leaf_value=0.0048142151532778029 0.0029400575293863354 0.0073474622132583284 0.0010335224160193334 -0.0016171918719300959 0.0030915420369797462 -0.0023997957392995722 0.003664124462195759 0.00084403234873733956 -0.0012779056684555192 0.00034540160966883349 -0.0021838009619389483 0.00024356252492478841 0.00042565079638479781 -0.00014693706883335634 -0.0012070048770782174 -0.0037231322630488792 -0.0021318908592563219 -0.0050411679500181467 0.00095048033679742195 0.00066194799453652624 0.0034910969504802765 0.0030647724144904666 -0.00014524399295332384 -0.0014188593536578456 -0.0017382565278233129 -0.0010435322172068777 -0.00065212565818283054 -0.00094337661082416458 -6.1280523669273509e-05 -0.00074824454598839438
leaf_weight=2344 4862 1217 4766 46105 717 5512 3137 586606 27672 33683 4001 4630 42110 8238 9226 10636 68170 1216 8584 2645 706 4016 24906 10373 66339 55212 6491 16026 15527 79377
leaf_count=2344 4862 1217 4766 46105 717 5512 3137 586606 27672 33683 4001 4630 42110 8238 9226 10636 68170 1216 8584 2645 706 4016 24906 10373 66339 55212 6491 16026 15527 79377
internal_value=-2.2687e-06 0.000527838 -0.00125396 -0.00134324 -0.00164893 -0.000712719 0.00068859 0.000663836 -9.77037e-05 -0.000719134 0.000785445 0.00178026 0.00065025 0.00099857 -0.00121314 -0.00229762 -0.00234669 -0.000914672 -0.00016698 0.00292049 -1.36881e-05 0.00406146 -0.000741426 -0.00110568 -0.00128651 -0.00142272 0.000827653 -0.000490079 -0.000496316 -0.000855521
internal_weight=1.15505e+06 811407 343643 330543 221866 93079 718328 710450 97825 108677 612625 6974 45247 13100 63915 79523 78806 86105 17810 7878 44762 5233 52578 11079 142343 121551 593097 20792 19528 84889
internal_count=1155050 811407 343643 330543 221866 93079 718328 710450 97825 108677 612625 6974 45247 13100 63915 79523 78806 86105 17810 7878 44762 5233 52578 11079 142343 121551 593097 20792 19528 84889
is_linear=0
shrinkage=0.03


Tree=2
num_leaves=31
num_cat=0
split_feature=12 11 0 8 2 0 1 8 1 11 8 8 8 12 9 2 8 8 9 8 0 1 11 0 9 11 8 0 0 8
split_gain=801.242 169.166 72.2843 64.991 55.8913 49.0875 41.479 68.7869 49.6388 39.4562 34.6508 34.4983 33.6979 28.2663 24.0929 22.0525 21.3432 21.2801 20.607 23.0115 18.414 18.3225 16.669 16.6492 16.6391 16.1341 16.0806 15.7539 14.9803 14.9501
threshold=1.0000000180025095e-35 0.96419281465359863 0.71815262986303452 0.0048013452629132739 1.0141407861187963 0.74098239277209355 -0.03481732838378044 -0.0020414289314229085 -0.011451625143372101 1.7460539994771529 0.016963256692530852 -0.0060649358666122295 -0.0067324834395418318 0.10781674292303688 -0.18076878442105693 1.309071289835892 0.0095176139944818001 -0.0032467264729656863 -0.095114572997397909 -0.0053361371632855851 0.82325938479411798 0.013244049756063563 2.0718947522891393 0.5327529447559064 -0.057177175768513791 -0.92748617688204071 -7.8220763444094652e-05 1.8269289522920575 0.89973691184805082 0.0010857752501857631
decision_type=10 8 2 2 2 2 2 2 2 8 2 2 2 10 2 2 2 2 2 2 2 2 8 2 2 10 2 2 2 2
left_child=1 5 11 4 20 12 17 8 14 13 27 -2 -1 -5 -8 29 -15 23 -6 -20 24 -11 -23 -3 -4 -13 -22 -9 -12 -7
right_child=2 6 3 9 18 15 7 10 -10 21 28 25 -14 16 -16 -17 -18 -19 19 -21 26 22 -24 -25 -26 -27 -28 -29 -30 -31
leaf_value=0.0048747372302316789 0.0031256647289895083 0.007153671406221875 0.0010417722283354329 -0.0015657500631975729 0.002929952877782483 -0.0012373458673684292 -0.0023735601181107385 0.00081413693842019856 -0.00055224116072703452 0.00033322239801145885 -0.0021182884494354536 -0.0012429994295288956 0.00027458715621657295 -0.001161775910430781 0.0011188180674774958 -0.0048899454397097544 0.00091322013255558995 0.00078988167397638304 -0.0036367929244226684 -0.0020943141339954388 -0.0017041682739356411 0.0033863787692343036 -0.0013762939963639224 0.0030595626960941728 -0.0009038711801557859 0.0019572381154449778 -0.0010229809308449883 -0.0013103643943004637 -5.9442155000234962e-05 -0.00044286217196610691
leaf_weight=2181 4654 1171 5126 46168 683 40680 1894 589940 67086 33816 4001 4551 4184 9244 28845 1216 8622 2902 10070 64523 68187 706 10373 3805 17315 2059 57546 3157 15527 44818
leaf_count=2181 4654 1171 5126 46168 683 40680 1894 589940 67086 33816 4001 4551 4184 9244 28845 1216 8622 2902 10070 64523 68187 706 10373 3805 17315 2059 57546 3157 15527 44818
internal_value=-2.20078e-06 0.000512002 -0.00121634 -0.00129644 -0.00158935 -0.000691337 0.000667932 0.000643921 -9.47717e-05 -0.000695567 0.000761881 0.00114703 0.00185138 -0.00117365 0.000903529 -0.000878015 -0.000160231 0.00283291 -0.00225507 -0.00230259 -0.00125112 -1.36102e-05 -0.0010725 0.00402375 -0.000459309 -0.000245664 -0.00139242 0.000802823 -0.000481432 -0.000820914
internal_weight=1.15505e+06 811407 343643 332379 223450 93079 718328 710450 97825 108929 612625 11264 6365 64034 30739 86714 17866 7878 75276 74593 148174 44895 11079 4976 22441 6610 125733 593097 19528 85498
internal_count=1155050 811407 343643 332379 223450 93079 718328 710450 97825 108929 612625 11264 6365 64034 30739 86714 17866 7878 75276 74593 148174 44895 11079 4976 22441 6610 125733 593097 19528 85498
is_linear=0
shrinkage=0.03


Tree=3
num_leaves=31
num_cat=0
split_feature=12 11 0 8 2 0 1 8 1 11 8 8 8 8 12 2 8 8 12 11 8 0 10 10 0 11 10 10 0 1
split_gain=753.888 159.169 68.0436 62.0284 51.4155 46.4556 39.0285 64.7216 47.1005 37.258 34.2852 32.6034 32.1445 28.7239 26.5733 20.565 20.3721 20.0382 17.5443 22.3284 17.1071 16.8703 15.6138 15.3812 15.1611 15.1082 18.6644 15.4267 14.6768 14.629
threshold=1.0000000180025095e-35 0.96419281465359863 0.73055156978126889 0.0048013452629132739 1.0111348765899313 0.75914829325561384 -0.03481732838378044 -0.0020414289314229085 -0.0064274479044590894 1.7460539994771529 -0.0067324834395418318 0.016963256692530852 -0.0062841644334804998 -0.0067324834395418318 0.10781674292303688 1.309071289835892 0.0095176139944818001 -0.0029155691960836435 0.031060724464022818 5.8844304085780248 -0.0055232915789166625 0.5327529447559064 17.298473732009239 9.1533639761760046 0.82325938479411798 -9.1081615861093255 -32.943184730717014 23.072339801746232 0.5327529447559064 0.0093587124617779942
decision_type=10 8 2 2 2 2 2 2 2 8 2 2 2 2 8 2 2 2 10 8 2 2 10 10 2 10 10 10 2 2
left_child=1 5 13 4 24 10 17 8 12 14 -1 23 -8 -2 -5 25 -16 21 -11 -20 -6 -3 -12 -9 -4 26 -7 -27 -15 -13
right_child=2 6 3 9 20 15 7 11 -10 18 22 29 -14 28 16 -17 -18 -19 19 -21 -22 -23 -24 -25 -26 27 -28 -29 -30 -31
leaf_value=0.0044576136664085594 0.0027690864401251451 0.006919679637838053 -0.00046130764744556959 -0.0015217038041511614 -0.0032828319175520898 0.0015142971110782073 0.0013760737507748512 0.0007568778604013206 -0.00070261836328345791 -0.0011837996323716706 0.00083678704420570547 -0.0015137627703772393 -0.00022528456661417558 -0.0040621695195756785 -0.001135942292826231 -0.0047432592517525777 0.00089456976071000845 0.00061839478125583734 0.0022348805206801612 -1.5169501006592852e-06 -0.0019895710587010313 0.0028846242200522357 -0.0039726341409805493 0.001847050280532286 -0.0013381949563373748 -0.0006034284454632747 -0.0031404582219094913 -0.0023941640145819058 0.00026993520821238181 0.00017689759068475848
leaf_weight=2503 4862 1217 20792 46105 10636 935 23819 581207 52578 9160 4312 7439 21428 777 9226 1216 8584 2645 4616 30986 68887 4016 707 11890 121551 74292 4515 4599 7461 12089
leaf_count=2503 4862 1217 20792 46105 10636 935 23819 581207 52578 9160 4312 7439 21428 777 9226 1216 8584 2645 4616 30986 68887 4016 707 11890 121551 74292 4515 4599 7461 12089
internal_value=-2.1349e-06 0.000496642 -0.00117985 -0.0012639 -0.00155153 -0.000670597 0.000647894 0.000624603 -9.19286e-05 -0.000676654 0.0015896 0.000739024 0.00061764 0.000940518 -0.00114151 -0.000869346 -0.000157115 0.00274795 -1.28299e-05 0.000288366 -0.00216258 0.00382371 0.000158646 0.000778738 -0.00121013 -0.000813452 -0.00234133 -0.000707861 -0.000138345 -0.000466994
internal_weight=1.15505e+06 811407 343643 330543 221866 93079 718328 710450 97825 108677 7522 612625 45247 13100 63915 85557 17810 7878 44762 35602 79523 5233 5019 593097 142343 84341 5450 78891 8238 19528
internal_count=1155050 811407 343643 330543 221866 93079 718328 710450 97825 108677 7522 612625 45247 13100 63915 85557 17810 7878 44762 35602 79523 5233 5019 593097 142343 84341 5450 78891 8238 19528
is_linear=0
shrinkage=0.03


Tree=4
num_leaves=31
num_cat=0
split_feature=12 11 0 0 1 9 2 10 10 7 9 12 2 0 12 11 12 2 11 10 10 10 0 0 12 6 10 10 5 0
split_gain=709.335 149.762 64.3021 43.7103 36.7227 30.7731 26.2255 23.2686 22.3922 21.2308 21.0191 21.0092 19.3495 19.063 17.3704 15.8415 14.8243 14.5169 14.2148 17.7462 14.5149 13.6117 13.118 16.2572 14.2639 12.8788 12.6871 16.8683 11.5685 10.111
threshold=1.0000000180025095e-35 0.96419281465359863 0.71815262986303452 0.75914829325561384 -0.03481732838378044 -0.11938662816219102 1.0245292395376457 -15.64667958096973 -9.3089506106742945 -0.047182917883315988 -0.025867727468424129 0.048983593435454671 1.309071289835892 0.93593354804450768 0.0019995886551341904 1.7460539994771529 0.034910107539462019 1.0818837048131518 -9.1081615861093255 -29.502968997027928 23.072339801746232 9.6000989315504004 1.0913872692939293 0.82325938479411798 0.20100522815608513 0.41300459652304428 18.382030986168186 31.229804664205957 0.031317441418278601 0.66823149779598989
decision_type=10 8 2 2 2 2 2 10 10 2 2 10 2 2 10 10 8 2 10 10 10 8 2 2 10 2 10 10 2 2
left_child=1 3 8 10 25 7 14 17 -2 -7 -1 16 18 -11 -4 -13 21 -6 19 -5 -20 -8 23 -16 -24 28 29 -28 -3 -10
right_child=2 4 6 12 5 9 11 -9 26 13 -12 15 -14 -15 22 -17 -18 -19 20 -21 -22 -23 24 -25 -26 -27 27 -29 -30 -31
leaf_value=0.0030067249280158886 -0.00017541626283101774 0.0025578602252988264 -0.0041219985772308135 0.00083910850625176672 -0.0016658714480231218 0.00092561344791226591 -0.0011936889946340822 0.0043625728813154368 0.0044954259950785941 6.7010243271235944e-05 -0.00017417762432953425 -0.0013922748700729609 -0.0046009730212946409 0.00060541665951841601 -0.00042400226164964746 0.00035561674847156495 -0.002996038164974723 0.0055632377919374743 -0.00058532554373216198 -0.0032128678552676895 -0.0023223407181011241 -0.0024307233050384234 -0.00057657089093662026 -0.001208485312903227 0.0021572227153250859 -0.001625575975147708 -0.0048798212678008643 0.0051306696658524921 0.0061850158746566035 0.0016888037854479088
leaf_weight=4059 5966 6391 1626 1266 8848 165968 17325 662 2263 67791 3463 60905 1216 466924 27775 5051 12153 257 74292 4184 4599 14907 25182 165612 1843 582 432 233 905 2370
leaf_count=4059 5966 6391 1626 1266 8848 165968 17325 662 2263 67791 3463 60905 1216 466924 27775 5051 12153 257 74292 4184 4599 14907 25182 165612 1843 582 432 233 905 2370
internal_value=-2.07094e-06 0.000481743 -0.00114446 -0.000650481 0.000628458 0.000605865 -0.00122001 -0.00106634 0.0010846 0.000629178 0.00154191 -0.00159807 -0.000843268 0.000537163 -0.00103211 -0.00125837 -0.0021028 -0.00146143 -0.00078905 -0.00227107 -0.000686627 -0.0017659 -0.0010093 -0.00109583 -0.000390018 0.00266553 0.00250403 -0.00136763 0.00300826 0.00306042
internal_weight=1.15505e+06 811407 343643 93079 718328 710450 332379 9767 11264 700683 7522 110341 85557 534715 222038 65956 44385 9105 84341 5450 78891 32232 220412 193387 27025 7878 5298 665 7296 4633
internal_count=1155050 811407 343643 93079 718328 710450 332379 9767 11264 700683 7522 110341 85557 534715 222038 65956 44385 9105 84341 5450 78891 32232 220412 193387 27025 7878 5298 665 7296 4633
is_linear=0
shrinkage=0.03


Tree=5
num_leaves=31
num_cat=0
split_feature=12 11 9 8 2 8 0 1 11 0 8 8 0 8 12 1 2 8 8 9 8 8 8 1 0 1 0 0 8 11
split_gain=654.634 143.366 63.7946 57.8978 57.5853 36.4186 90.3765 40.2201 36.4012 35.0404 30.8672 30.838 30.7616 30.0974 24.8215 19.7396 18.71 18.4598 18.0487 20.1967 17.928 19.8339 17.8625 17.5562 16.9217 16.4944 15.7327 14.7206 14.3937 13.8307
threshold=1.0000000180025095e-35 0.98311580545262467 -0.095114572997397909 0.0048013452629132739 1.0239671145278288 -0.0020414289314229085 0.83189391652635269 -0.047028510304513473 1.7460539994771529 0.75914829325561384 -0.014404517255218139 -0.0067324834395418318 0.80945445079741518 0.016963256692530852 0.10781674292303688 0.013244049756063563 1.309071289835892 0.0095176139944818001 -0.0053361371632855851 -0.034724015407668223 0.0010857752501857631 0.0095176139944818001 -0.0085368596276770067 0.0027687210486457945 1.8269289522920575 0.0099241550772476168 0.60057028903320242 0.90449013038024362 0.0093664816555409751 -7.990667137557705
decision_type=10 8 2 2 2 2 2 2 8 2 2 2 2 2 10 2 2 2 2 2 2 2 2 2 2 2 2 2 2 10
left_child=1 9 26 4 12 6 7 -3 14 11 -9 -1 -4 24 29 28 20 -16 19 -6 -11 -22 -14 -8 -7 -15 -2 -27 -10 -5
right_child=2 5 3 8 18 13 23 10 15 16 -12 -13 22 25 17 -17 -18 -19 -20 -21 21 -23 -24 -25 -26 27 -28 -29 -30 -31
leaf_value=0.0040818528384320742 0.0050117503389743865 0.0058237656195215901 -0.00014883870643688269 0.0022259935030449866 -0.0054909308794415393 0.00074779474840184568 -8.6391734005244301e-05 0.0055677629072997756 0.0001008304410815621 -0.0012175496505143928 0.0010507314684098112 -1.6136763807366296e-05 -0.0028853835779302098 -0.0015245779151341985 -0.0010327367550294799 -0.0010422474086646412 -0.0044912903876022647 0.00089230473974149128 -0.0020107421600085995 -0.0023977331227480231 9.2216346077538669e-05 -0.0012584821358849274 -0.0012353555284110728 -0.0010485011673233078 -0.0014291923489409108 -0.0022397641530365548 0.0010838947127763537 0.00070282328358470183 0.0016243502969177372 -0.0014918550085779487
leaf_weight=2460 1073 2013 24156 918 2985 591273 56373 1468 27496 40075 18839 5031 6180 7839 9299 11140 1225 8656 53663 5243 30301 14448 134027 24488 3230 1807 6372 9973 7004 45502
leaf_count=2460 1073 2013 24156 918 2985 591273 56373 1468 27496 40075 18839 5031 6180 7839 9299 11140 1225 8656 53663 5243 30301 14448 134027 24488 3230 1807 6372 9973 7004 45502
internal_value=1.03215e-06 0.000466131 -0.00109616 -0.00115698 -0.00143148 0.000610187 8.86472e-05 0.00177861 -0.000592407 -0.000638513 0.00137744 0.00132925 -0.00113775 0.000697808 -0.00105189 5.56269e-05 -0.000809853 -0.000104519 -0.00221148 -0.00352032 -0.000756646 -0.000343815 -0.00130811 -0.000377796 0.000735962 -0.0004582 0.00165045 0.000251174 0.000410218 -0.00141826
internal_weight=1.15456e+06 810843 343714 336269 226254 717303 103181 22320 110015 93540 20307 7491 164363 614122 64375 45640 86049 17955 61891 8228 84824 44749 140207 80861 594503 19619 7445 11780 34500 46420
internal_count=1154557 810843 343714 336269 226254 717303 103181 22320 110015 93540 20307 7491 164363 614122 64375 45640 86049 17955 61891 8228 84824 44749 140207 80861 594503 19619 7445 11780 34500 46420
is_linear=0
shrinkage=0.03


Tree=6
num_leaves=31
num_cat=0
split_feature=12 11 0 8 2 8 0 11 0 1 8 8 8 8 12 9 1 1 2 8 8 0 9 8 8 0 11 8 1 9
split_gain=615.945 134.893 60.5455 55.517 46.9684 34.2661 85.1721 33.6639 32.9693 32.4627 30.3109 29.6884 29.0158 28.3188 23.9213 20.9046 20.4373 18.5437 17.6042 16.8684 18.6618 16.7559 16.7392 16.8593 16.6883 15.9218 15.659 15.5235 15.5195 15.2989
threshold=1.0000000180025095e-35 0.98311580545262467 0.71815262986303452 0.0048013452629132739 1.0245292395376457 -0.0020414289314229085 0.70379631805505538 1.7460539994771529 0.75914829325561384 -0.0064274479044590894 -0.014404517255218139 -0.0060649358666122295 -0.0067324834395418318 0.016963256692530852 0.10781674292303688 -0.03867154206580823 -0.047028510304513473 0.013244049756063563 1.309071289835892 0.0010857752501857631 0.0095176139944818001 0.82325938479411798 -0.095114572997397909 -0.0053361371632855851 0.0095176139944818001 1.8269289522920575 -0.92748617688204071 -0.0088449590845055565 0.0099241550772476168 -0.11938662816219102
decision_type=10 8 2 2 2 2 2 8 2 2 2 2 2 2 10 2 2 2 2 2 2 2 2 2 2 2 10 2 2 2
left_child=1 8 11 4 21 6 16 14 12 10 -8 -2 -1 25 -5 -11 -3 -9 19 -10 -21 -4 -6 -24 -16 -7 -13 -23 -15 -18
right_child=2 5 3 7 22 13 9 17 18 15 -12 26 -14 28 24 -17 29 -19 -20 20 -22 27 23 -25 -26 -27 -28 -29 -30 -31
leaf_value=0.003959402236923963 0.0029151782390501278 0.0058467630440430848 -0.00038628101733116882 -0.0013846835974252762 0.0031001192876654463 0.00072536093403697481 0.0033252362743187232 0.0003944721396400442 -0.001181023349502144 -0.0013321999214742301 0.00023224490286598883 -0.0011768161442425337 -1.5652793519404294e-05 -0.001478841194376539 -0.00097841244193939275 -0.00012449975537639831 -6.9675345769669257e-05 -0.0010164624532623351 -0.0043565625275930166 8.9449927379047189e-05 -0.0012207278255789581 -0.0027613225675895132 -0.0034363785238141981 -0.0019646385399790601 0.00085763370585539682 -0.0013863180712940335 0.0019571854921928604 -0.0011958430068940485 0.00024363022483391814 0.0033049384801840638
leaf_weight=2460 4700 1904 22856 46196 549 591273 3069 33933 40075 23140 40289 4590 5031 7839 9221 29161 1758 11134 1225 30301 14448 5960 8079 53054 8620 3230 2087 132735 11780 3860
leaf_count=2460 4700 1904 22856 46196 549 591273 3069 33933 40075 23140 40289 4590 5031 7839 9221 29161 1758 11134 1225 30301 14448 5960 8079 53054 8620 3230 2087 132735 11780 3860
internal_value=1.00073e-06 0.000452147 -0.00106327 -0.00113695 -0.00140803 0.000591881 8.59881e-05 -0.000582268 -0.000619358 -0.000155682 0.000451252 0.00108857 0.00128937 0.000676873 -0.00102435 -0.000658892 0.00315972 4.58265e-05 -0.000785559 -0.000733947 -0.000333499 -0.0011391 -0.00211233 -0.00215919 -9.11463e-05 0.000713883 -0.000196771 -0.00126314 -0.000444454 0.00224843
internal_weight=1.15456e+06 810843 343714 332337 223233 717303 103181 109104 93540 95659 43358 11377 7491 614122 64037 52301 7522 45067 86049 84824 44749 161551 61682 61133 17841 594503 6677 138695 19619 5618
internal_count=1154557 810843 343714 332337 223233 717303 103181 109104 93540 95659 43358 11377 7491 614122 64037 52301 7522 45067 86049 84824 44749 161551 61682 61133 17841 594503 6677 138695 19619 5618
is_linear=0
shrinkage=0.03


Tree=7
num_leaves=31
num_cat=0
split_feature=12 10 9 0 8 2 8 0 6 8 9 8 0 9 12 8 5 10 10 10 8 1 8 9 10 0 0 8 8 9
split_gain=579.543 95.9271 57.8192 53.4192 51.4243 50.846 50.0913 70.9153 27.8294 35.5319 30.447 27.6892 27.3248 26.2962 23.2044 30.6344 18.1811 18.0413 17.6921 17.2914 17.0313 16.3288 15.5109 18.8621 14.9068 14.2002 13.2575 15.4864 19.0211 14.499
threshold=1.0000000180025095e-35 9.1533639761760046 -0.095114572997397909 0.77436747703552877 0.0048013452629132739 1.0245292395376457 -0.0020414289314229085 0.68774463914594541 0.35064935064924824 -0.0067324834395418318 -0.03867154206580823 0.016963256692530852 0.80438390135193416 -0.058413492250586251 0.10240658086816452 0.0095176139944818001 -0.017579969141290456 11.293878250539331 11.033229609335306 23.072339801746232 -0.0085368596276770067 0.0080108453783953176 -0.0053361371632855851 -0.034724015407668223 -36.35120762356231 0.60057028903320242 0.90901185141534258 0.0010857752501857631 0.0078854468820227005 -0.050515198247637463
decision_type=10 8 2 2 2 2 2 2 2 2 2 2 2 2 8 2 2 10 10 10 2 2 2 2 8 2 2 2 2 2
left_child=1 3 25 13 5 12 7 16 9 -9 -10 19 -4 -1 17 -16 -3 18 -6 -8 -14 -13 23 -7 -17 -2 -5 29 -29 -28
right_child=2 6 4 26 14 22 11 8 10 -11 -12 21 20 -15 15 24 -18 -19 -20 -21 -22 -23 -24 -25 -26 -27 27 28 -30 -31
leaf_value=0.0049447290615773232 0.0047768829905043414 0.00013578666759543736 -0.00010808938992727576 -2.6318288723279284e-05 -0.00070956337902073003 -0.0052291987243328194 0.00070504049830294945 0.0013570441872338623 -0.0015985114791591439 -0.0004237751317290163 -0.00017497637899980029 -0.0016255640140145529 -0.002745789756041945 0.0008432526431340051 -0.00066520231253764165 -0.004478704505063374 0.0037403572135474433 -0.0020222448909469237 0.0063825130518508268 -0.0009756957539973697 -0.0011571695025966095 0.00017697793747574093 -0.0018992779372919999 -0.0022182910137396156 0.0012582663188821749 0.0010451412967582647 -2.848527628682119e-05 6.140671873394637e-05 -0.0013487717168505428 -0.001918103844932693
leaf_weight=1932 1073 1654 22739 17122 62670 2937 593991 17938 20447 23026 39945 6905 6361 5185 21569 419 5302 10407 318 5559 135880 13104 53153 5184 14632 6372 4505 19189 15607 19432
leaf_count=1932 1073 1654 22739 17122 62670 2937 593991 17938 20447 23026 39945 6905 6361 5185 21569 419 5302 10407 318 5559 135880 13104 53153 5184 14632 6372 4505 19189 15607 19432
internal_value=9.70207e-07 0.000438582 -0.00103138 -0.000527861 -0.00108928 -0.00134798 0.000548754 -4.64409e-05 -0.000247567 0.000355968 -0.000656996 0.000652811 -0.00107387 0.00195713 -0.000557202 5.95367e-05 0.00288371 -0.00086496 -0.000673701 0.000689452 -0.00122824 -0.000444925 -0.00208599 -0.00330762 0.00109833 0.00158343 -0.000761054 -0.000975194 -0.000571014 -0.0015626
internal_weight=1.15456e+06 810843 343714 82972 336269 226254 727871 108312 101356 40964 60392 619559 164980 7117 110015 36620 6956 73395 62988 599550 142241 20009 61274 8121 15051 7445 75855 58733 34796 23937
internal_count=1154557 810843 343714 82972 336269 226254 727871 108312 101356 40964 60392 619559 164980 7117 110015 36620 6956 73395 62988 599550 142241 20009 61274 8121 15051 7445 75855 58733 34796 23937
is_linear=0
shrinkage=0.03


Tree=8
num_leaves=31
num_cat=0
split_feature=12 11 0 8 6 11 2 8 0 9 8 8 8 9 12 8 10 1 2 9 8 0 11 0 2 8 1 8 11 8
split_gain=545.293 122.409 54.5632 49.2151 42.1829 31.5478 30.6928 41.9938 49.8102 30.0346 27.1465 26.5044 24.0781 21.9018 21.4408 20.3574 18.0694 17.5312 17.3288 15.4447 14.8339 14.8199 14.7098 14.0422 13.7317 13.3528 23.3987 18.4243 13.0463 13.0242
threshold=inf 0.98311580545262467 0.71815262986303452 0.0048013452629132739 0.39043166357005471 1.7460539994771529 0.7633546608163575 -0.0020414289314229085 0.85050852915544117 -0.07877551158675726 -0.0060649358666122295 -0.014404517255218139 0.016963256692530852 -0.07877551158675726 0.10781674292303688 -7.8220763444094652e-05 -22.741566223023884 0.013244049756063563 1.309071289835892 -0.03867154206580823 0.0095176139944818001 1.8269289522920575 -0.92748617688204071 0.68774463914594541 1.0686895958270495 0.0010857752501857631 -0.017666514236120655 0.0095176139944818001 -7.990667137557705 0.0093664816555409751
decision_type=8 8 2 2 2 8 2 2 2 2 2 2 2 2 10 2 10 2 2 2 2 2 10 2 2 2 2 2 10 2
left_child=2 9 10 4 13 14 -3 8 11 23 -1 -8 21 -4 28 16 -6 29 25 -10 -16 -9 -12 -2 -14 26 -11 -27 -5 -7
right_child=1 6 3 5 15 17 7 12 19 18 22 -13 24 -15 20 -17 -18 -19 -20 -21 -22 -23 -24 -25 -26 27 -28 -29 -30 -31
leaf_value=0.0027889941943683725 0.0052067100494584259 0.0034824005278366633 0.00071192788722157084 0.0022220152748142351 -0.0029300162278421294 9.995580543804772e-05 0.0049876050017551308 0.00068371527478588458 -0.00086017993928002993 0.00033066881082801036 -0.0011366325316195583 0.00092676379687582362 -0.0010478050390251975 -0.0010158724019206898 -0.00092910465073390257 -0.0013605747439355454 -0.0017577905377442183 -0.00097296759470415087 -0.0042903658117518766 -7.7556625126858651e-06 0.0008019241328233029 -0.001353586864711407 0.0019009037762329499 0.00096589548469707624 0.00057185339269172168 8.9129806093144471e-05 -0.0014257237286720702 -0.0011978403504343212 -0.0013890556007425537 0.0015549125957235179
leaf_weight=4700 863 3217 7057 918 18157 26963 1551 590709 34509 8616 4590 21556 11711 102163 9221 61786 34070 11134 1206 42941 8620 3230 2087 3799 7879 31584 32817 14655 45278 6970
leaf_count=4700 863 3217 7057 918 18157 26963 1551 590709 34509 8616 4590 21556 11711 102163 9221 61786 34070 11134 1206 42941 8620 3230 2087 3799 7879 31584 32817 14655 45278 6970
internal_value=9.40512e-07 0.000425425 -0.00100044 -0.00107038 -0.00132561 -0.000548124 0.000558535 0.000545359 -2.28764e-05 -0.000595291 0.00104233 0.00119949 0.000638497 -0.000904207 -0.000976082 -0.00172927 -0.00216538 5.99084e-05 -0.000718434 -0.000387605 -9.25784e-05 0.000672631 -0.00018674 0.00175167 -0.000396234 -0.00066926 -0.00106041 -0.0003187 -0.00131723 0.000398903
internal_weight=1.15456e+06 810843 343714 332337 223233 109104 717303 714086 100557 93540 11377 23107 613529 109220 64037 114013 52227 45067 88878 77450 17841 593939 6677 4662 19590 87672 41433 46239 46196 33933
internal_count=1154557 810843 343714 332337 223233 109104 717303 714086 100557 93540 11377 23107 613529 109220 64037 114013 52227 45067 88878 77450 17841 593939 6677 4662 19590 87672 41433 46239 46196 33933
is_linear=0
shrinkage=0.03


Tree=9
num_leaves=31
num_cat=0
split_feature=11 0 8 0 1 8 9 0 11 8 8 9 0 8 10 9 6 8 8 9 9 11 6 8 5 11 2 0 7 8
split_gain=301.817 80.8291 77.6113 60.9085 42.4495 30.1369 29.9705 28.2781 28.4734 27.2811 23.3541 22.6039 18.6929 19.1208 17.6703 17.2461 17.0338 17.0285 15.8175 21.3204 17.6204 15.6045 15.1265 14.6606 14.0781 13.6791 12.7568 12.618 14.2372 11.6008
threshold=1.2620363873086144 0.71815262986303452 0.0013685269754058977 0.66823149779598989 0.0052851943649489643 -0.0067324834395418318 -0.07877551158675726 0.92011341066775743 5.8844304085780248 0.0078387228712488172 -0.002822630423445206 -0.18076878442105693 1.7056818778594052 0.01214428336384338 -24.814184270410077 -0.095114572997397909 0.355022236994392 0.014191900954910327 0.0058978240130466474 -0.10412518502123133 -0.075010234470165332 -9.1081615861093255 0.68011341339119469 -0.001903895992832329 0.025259990243839316 0.65851647890038811 0.91299966291242729 1.217970155305113 -0.051042470657147739 0.017629572539073223
decision_type=8 2 2 2 2 2 2 2 10 2 2 2 2 2 8 2 2 2 2 2 2 10 2 2 2 10 2 2 2 2
left_child=1 5 3 10 11 -1 -3 9 27 18 24 -5 13 25 -6 -11 -13 -15 19 -4 -20 -14 -17 -16 -2 -8 -10 -9 -29 -23
right_child=2 6 7 4 14 -7 12 8 26 15 -12 16 21 17 23 22 -18 -19 20 -21 -22 29 -24 -25 -26 -27 -28 28 -30 -31
leaf_value=0.0034540099799168279 0.0025601974458328478 0.00062763341324795858 -0.004741968136484075 -0.0027450658487922375 -0.0058022225014521481 0.00027736423545934061 -0.0011540413564037648 0.00062776830613208638 -0.0082665416588342949 0.0044021983826589353 -0.00062283258872173437 0.00030299222555681251 -0.010253084921307897 0.00090427258275837402 -0.0014494285916680006 -0.0009356889334197014 -0.00026698387890291165 -0.00073655540719505281 0.0067931685108012386 4.2309731766766734e-05 0.00087313824087088463 -0.0017954925314116279 -0.003793679756144825 -0.00049649998095894663 0.0063151000339436271 -0.00043815043125389528 -0.0011745241974028765 0.0016189208608442488 0.00010849989442330047 -0.0055252943999872118
leaf_weight=4807 5609 10336 854 2702 662 6102 200177 443525 237 502 1877 94499 234 8369 24060 15968 94256 17793 466 45309 15713 5046 1862 36722 1072 27314 6256 6070 75275 883
leaf_count=4807 5609 10336 854 2702 662 6102 200177 443525 237 502 1877 94499 234 8369 24060 15968 94256 17793 466 45309 15713 5046 1862 36722 1072 27314 6256 6070 75275 883
internal_value=9.12295e-07 -0.000854182 0.000276056 -0.000156589 -0.000240831 0.00167743 -0.000956423 0.000460884 0.000540341 -6.24257e-05 0.00233249 -2.06303e-05 -0.00101945 -0.000979767 -0.000926917 -0.0010798 1.83552e-05 -0.000211552 0.000236692 -4.61429e-05 0.00104388 -0.00265222 -0.00123434 -0.000873759 0.00316322 -0.0010681 -0.00143397 0.000564771 0.000221247 -0.00235156
internal_weight=1.15456e+06 281061 873496 261459 252901 10909 270152 612037 531363 80674 8558 191457 259816 253653 61444 18332 188755 26162 62342 46163 16179 6163 17830 60782 6681 227491 6493 524870 81345 5929
internal_count=1154557 281061 873496 261459 252901 10909 270152 612037 531363 80674 8558 191457 259816 253653 61444 18332 188755 26162 62342 46163 16179 6163 17830 60782 6681 227491 6493 524870 81345 5929
is_linear=0
shrinkage=0.03


Tree=10
num_leaves=31
num_cat=0
split_feature=12 11 9 8 2 11 0 2 8 0 9 8 8 12 1 11 8 8 9 0 8 2 0 11 0 12 1 8 8 8
split_gain=506.742 109.005 47.6523 48.7649 48.7136 28.6662 28.5679 26.8201 36.1374 47.168 27.5129 24.8603 22.689 19.0543 17.6942 20.6604 16.6941 16.3614 19.114 15.2838 15.0952 14.6982 14.6842 14.1104 24.0586 18.4618 13.3687 12.3872 12.0499 11.7893
threshold=1.0000000180025095e-35 0.98311580545262467 -0.07877551158675726 0.0048013452629132739 1.0116486354480014 1.7460539994771529 0.77436747703552877 0.7633546608163575 -0.0020414289314229085 0.85050852915544117 -0.11938662816219102 -0.0073779524130469353 0.016963256692530852 0.10781674292303688 0.031287169353280457 -2.1041986271475128 0.0010857752501857631 -0.0053361371632855851 -0.034724015407668223 0.60057028903320242 0.0095176139944818001 1.0686895958270495 0.80945445079741518 4.8456563548914753 1.281737956649214 0.016743410217054593 0.0028754038857416093 -0.0088449590845055565 -0.002822630423445206 0.0078387228712488172
decision_type=10 8 2 2 2 8 2 2 2 2 2 2 2 8 2 10 2 2 2 2 2 2 2 8 2 10 2 2 2 2
left_child=1 6 19 4 22 13 11 28 9 10 -9 -1 29 -5 16 -16 -8 18 -6 -2 -15 -14 -4 25 -25 -7 -11 -24 -3 -10
right_child=2 7 3 5 17 23 14 8 12 26 -12 -13 21 20 15 -17 -18 -19 -20 -21 -22 -23 27 24 -26 -27 -28 -29 -30 -31
leaf_value=0.0038994471453929606 0.0041890598589678094 0.0042357654339414338 -0.00026283601832897751 -0.0012473605984650667 -0.0047306726062102079 -0.0020465887321074656 -0.001042999730666112 -0.0010654157630419429 0.00071456513031419543 -9.4763187172513654e-05 0.0016569838068905499 0.00016893618882499965 -0.0010636158233563735 -0.00092863646357705049 -0.0045318176531615314 -0.0010821953180203958 -0.00016178007604350034 -0.00172692145927875 -0.0020471117494722602 0.00051099865284185179 0.00081841931542616828 0.0006143319658306421 -0.0026361076198212234 8.0120517820508124e-05 -0.0025436342775313615 0.0022009428693736113 -0.00094691104506646514 -0.0010361999060389743 -0.0002223279439733824 0.00039402347604869349
leaf_weight=2134 1114 2518 22598 46203 3721 1132 37295 4045 461240 53313 19163 6526 11785 9305 2233 5216 40226 66446 6692 11692 8532 7811 4526 36130 3445 4925 24047 117337 695 133120
leaf_count=2134 1114 2518 22598 46203 3721 1132 37295 4045 461240 53313 19163 6526 11785 9305 2233 5216 40226 66446 6692 11692 8532 7811 4526 36130 3445 4925 24047 117337 695 133120
internal_value=1.00766e-06 0.000410022 -0.000964262 -0.00103374 -0.00129008 -0.000516408 -0.000552708 0.000535616 0.000523313 -3.80191e-06 0.00118236 0.00108859 0.000609661 -0.000925828 -0.000720023 -0.00211674 -0.00058577 -0.00190031 -0.00300638 0.000831219 -9.27965e-05 -0.00039463 -0.000965392 5.81084e-05 -0.000148207 0.0014066 -0.000359689 -0.00109565 0.00327053 0.000642778
internal_weight=1.15516e+06 811367 343798 330992 221320 109672 93630 717737 714524 100568 23208 8660 613956 64040 84970 7449 77521 76859 10413 12806 17837 19596 144461 45632 39575 6057 77360 121863 3213 594360
internal_count=1155165 811367 343798 330992 221320 109672 93630 717737 714524 100568 23208 8660 613956 64040 84970 7449 77521 76859 10413 12806 17837 19596 144461 45632 39575 6057 77360 121863 3213 594360
is_linear=0
shrinkage=0.03


Tree=11
num_leaves=31
num_cat=0
split_feature=12 11 9 8 6 0 8 9 11 8 8 0 8 0 10 12 10 11 10 9 8 0 0 10 8 12 1 11 9 0
split_gain=476.794 102.563 45.2413 43.532 43.59 26.8801 26.851 52.0073 26.7172 23.5572 22.0149 82.9914 22.6099 20.233 18.2221 18.0243 17.6047 23.5039 22.4405 17.5516 17.9327 15.8298 15.4667 14.6235 14.4063 13.7936 13.631 18.8549 12.785 11.969
threshold=1.0000000180025095e-35 0.98311580545262467 -0.095114572997397909 0.0048013452629132739 0.44887876651598857 0.77436747703552877 -0.014404517255218139 -0.12814207355139737 1.7460539994771529 -0.0067324834395418318 -0.0020414289314229085 0.83189391652635269 0.016963256692530852 0.82752402162804262 17.298473732009239 0.10781674292303688 9.1533639761760046 -1.9551625177111711 23.072339801746232 -0.01976688428737286 -0.0053361371632855851 1.5694498641168797 0.79345081542856921 -15.64667958096973 0.0095176139944818001 0.0019995886551341904 0.0075118424493134028 2.0718947522891393 -0.033487738590818023 0.60057028903320242
decision_type=10 8 2 2 2 2 2 2 8 2 2 2 2 2 10 8 10 10 10 2 2 2 2 10 2 8 2 8 2 2
left_child=1 5 29 4 13 9 22 23 15 -1 11 -9 -12 28 -11 -5 -7 21 -19 20 -6 -18 -3 -8 -17 -15 -10 -28 -4 -2
right_child=2 6 3 8 19 16 7 10 26 14 12 -13 -14 25 -16 24 17 18 -20 -21 -22 -23 -24 -25 -26 -27 27 -29 -30 -31
leaf_value=0.0033862226003436909 0.0043628311066881082 0.0058339067701501284 0.00071246842997113537 -0.00120324027260882 -0.0034565147383832286 -0.0010498409733705834 -0.0023234798890270124 0.0019476401968077342 0.00048091511462764185 0.00067756271817576207 0.00062856287670185807 -0.000332487576481732 -0.00040623562600390953 -0.0048653149797828234 -0.0040817577589240062 -0.0009007776504941238 0.0021048508353977867 -0.0001917878491368518 -0.0027348065675097638 -0.0013841096047003724 -0.0018599893736113567 -0.004252294370869188 0.0018140642947603372 0.0050597298534282411 0.00080206406697838379 -0.0010217697020361949 0.0033468273539036426 -0.00081411343897035539 -0.00062327414337326925 0.00090074734402425963
leaf_weight=2691 1050 1121 10107 46309 8080 51118 6792 17737 27443 5126 592866 75603 19629 848 843 9305 4981 24921 3571 62982 29382 379 3739 250 8607 97352 1039 17210 17815 6269
leaf_count=2691 1050 1121 10107 46309 8080 51118 6792 17737 27443 5126 592866 75603 19629 848 843 9305 4981 24921 3571 62982 29382 379 3739 250 8607 97352 1039 17210 17815 6269
internal_value=9.76756e-07 0.000397721 -0.000935335 -0.000986096 -0.00122377 -0.000536128 0.000519547 0.000504391 -0.000496136 0.00105594 0.000529989 0.000100765 0.000595395 -0.000852376 4.84567e-06 -0.000890663 -0.000698425 -0.000167682 -0.000510627 -0.00169009 -0.00220442 0.00165471 0.00274199 -0.00206087 -8.23678e-05 -0.001055 5.83146e-05 -0.00057703 -0.000139664 0.00139789
internal_weight=1.15516e+06 811367 343798 336479 226566 93630 717737 712877 109913 8660 705835 93340 612495 126122 5969 64221 84970 33852 28492 100444 37462 5360 4860 7042 17912 98200 45692 18249 27922 7319
internal_count=1155165 811367 343798 336479 226566 93630 717737 712877 109913 8660 705835 93340 612495 126122 5969 64221 84970 33852 28492 100444 37462 5360 4860 7042 17912 98200 45692 18249 27922 7319
is_linear=0
shrinkage=0.03


Tree=12
num_leaves=31
num_cat=0
split_feature=12 11 9 8 2 9 11 8 9 7 8 1 8 12 8 1 2 0 11 10 10 8 9 12 11 0 8 0 10 8
split_gain=448.616 96.5023 42.7109 43.219 44.2402 26.1227 25.3836 25.2646 48.9332 21.7156 28.2815 17.6685 17.0098 16.8712 15.2343 19.8961 15.0008 14.9116 14.655 16.0798 14.3187 13.7123 18.7785 13.4922 21.7958 13.4181 13.3597 13.3089 13.1663 12.6304
threshold=inf 0.98311580545262467 -0.07877551158675726 0.0048013452629132739 1.0141407861187963 -0.07877551158675726 1.7460539994771529 -0.014404517255218139 -0.12814207355139737 -0.047182917883315988 0.0013685269754058977 0.02527722650806646 0.0068542331008228019 0.10781674292303688 0.0010857752501857631 -0.013541552539725691 1.0818837048131518 0.88720875066179539 -2.2505240621685285 -3.6778876738416164 9.1533639761760046 -0.0053361371632855851 -0.034724015407668223 0.031060724464022818 5.8844304085780248 0.60057028903320242 0.0095176139944818001 0.80438390135193416 -4.5065208796049001 -0.0088449590845055565
decision_type=8 8 2 2 2 2 8 2 2 2 2 2 2 10 2 2 2 2 10 10 8 2 2 10 8 2 2 2 10 2
left_child=2 5 25 4 27 -2 13 17 16 12 -11 14 -10 -5 15 -7 -9 -3 28 -20 -16 22 -6 -8 -25 -1 -15 -4 -13 -29
right_child=1 7 3 6 21 11 23 8 9 10 -12 18 -14 26 20 -17 -18 -19 19 -21 -22 -23 -24 24 -26 -27 -28 29 -30 -31
leaf_value=0.0039388170128805506 0.001671764570753195 0.0044813462381039651 -0.00022222746823937948 -0.0011738427449881827 -0.0046152118232374263 9.602338615908668e-05 -0.00096844565135385829 -0.0022445028921104573 0.00098539819139129101 4.4366337816227054e-05 0.0005467130961267551 -0.0058026024603320637 0.00028747814399207594 -0.00087375462955189957 -0.00053704852602936247 -0.0013682399678227326 0.0058164649272519379 0.0011418959010531717 0.0016424779638819094 -0.0017947178478334327 0.00062066010560411853 -0.0016543314560825805 -0.0018864421359903699 0.0022114527600394689 3.0391075643558241e-05 0.00049249896833909745 0.00076980533409138653 -0.0025485022804082715 -0.0018537954839564774 -0.00097315918486984006
leaf_weight=1114 4650 2208 21331 46203 3519 12205 9249 6828 126287 134538 403150 1314 41860 9305 23833 26427 214 2652 1558 5717 16116 63441 6412 4742 31641 11692 8532 4762 1810 121855
leaf_count=1114 4650 2208 21331 46203 3519 12205 9249 6828 126287 134538 403150 1314 41860 9305 23833 26427 214 2652 1558 5717 16116 63441 6412 4742 31641 11692 8532 4762 1810 121855
internal_value=9.47145e-07 0.000385789 -0.000907276 -0.000973051 -0.00121438 -0.000520045 -0.000486023 0.000503961 0.00048926 0.000514089 0.000421024 -0.000634622 0.00081167 -0.00087129 -0.000480784 -0.000905559 -0.00199903 0.00265976 -0.00179681 -0.00105819 -6.99368e-05 -0.00181671 -0.00285371 5.4595e-05 0.000314749 0.000792558 -8.74199e-05 -0.000915639 -0.00351581 -0.00103243
internal_weight=1.15516e+06 811367 343798 330992 221320 93630 109672 717737 712877 705835 537688 88980 168147 64040 78581 38632 7042 4860 10399 7275 39949 73372 9931 45632 36383 12806 17837 147948 3124 126617
internal_count=1155165 811367 343798 330992 221320 93630 109672 717737 712877 705835 537688 88980 168147 64040 78581 38632 7042 4860 10399 7275 39949 73372 9931 45632 36383 12806 17837 147948 3124 126617
is_linear=0
shrinkage=0.03


Tree=13
num_leaves=31
num_cat=0
split_feature=12 11 9 8 2 2 8 0 0 11 9 8 8 0 10 8 9 0 0 12 11 10 11 11 1 9 1 11 8 9
split_gain=422.104 90.8071 40.4577 38.5923 43.4429 24.7889 30.9858 41.1948 24.216 23.6494 23.2487 21.9105 21.016 34.0308 17.1946 16.4279 17.9499 16.4072 16.261 15.9588 15.0372 17.5926 14.686 22.8581 13.7867 12.9951 12.9222 17.3079 12.7589 12.5942
threshold=inf 0.96419281465359863 -0.095114572997397909 0.0048013452629132739 1.0116486354480014 0.7633546608163575 -0.0020414289314229085 0.85050852915544117 0.77436747703552877 1.7460539994771529 -0.11938662816219102 -0.0067324834395418318 0.0078387228712488172 0.91796128164907165 17.298473732009239 -0.0053361371632855851 -0.034724015407668223 0.80945445079741518 1.2138994908826961 0.10781674292303688 -9.1081615861093255 -29.502968997027928 0.59139938094036115 0.65851647890038811 0.040962315001855508 -0.03867154206580823 0.0075118424493134028 2.0718947522891393 0.0095176139944818001 -0.034724015407668223
decision_type=8 8 2 2 2 2 2 2 2 8 2 2 2 2 10 2 2 2 2 10 10 10 10 10 2 2 2 8 2 2
left_child=2 8 -1 4 17 -3 7 10 11 19 -7 -2 18 -14 -13 16 -6 29 -8 -5 21 -10 -22 -24 -23 -9 -11 -28 -21 -4
right_child=1 5 3 9 15 6 12 25 20 26 -12 14 13 -15 -16 -17 -18 -19 -20 28 22 24 23 -25 -26 -27 27 -29 -30 -31
leaf_value=0.0013263590128866592 0.0032557163821710527 0.0031177622534046268 0.0008560894537024082 -0.0011320423323528171 -0.0044257997790476348 -0.00096637315539603195 0.00072545526867480773 -0.00077716047769626302 0.00090666237961483038 0.00046637763332080842 0.0015331556042300529 0.00064642127519306169 -0.0010792335697172536 0.00040221751117180737 -0.0039814314007557364 -0.0015513660887428412 -0.0018731357849808025 -0.00098820098648465964 0.00019054341776431456 -0.00084754231204434594 -0.00040877520530664164 -0.0027208571149169919 -0.0047056726794433047 -0.00094035940683009412 -0.010593562552340115 4.6339622021928524e-06 0.0031957096845592549 -0.00079084622547665969 0.00075498110576351248 -0.00061167843549021837
leaf_weight=7319 2685 3213 7838 46309 3945 4056 402957 34499 1273 27443 19179 5090 15533 137322 842 67590 6692 124500 58602 9305 69843 3998 1812 7301 211 42951 1039 17210 8607 16001
leaf_count=7319 2685 3213 7838 46309 3945 4056 402957 34499 1273 27443 19179 5090 15533 137322 842 67590 6692 124500 58602 9305 69843 3998 1812 7301 211 42951 1039 17210 8607 16001
internal_value=9.18694e-07 0.000374216 -0.000880058 -0.000928061 -0.00115185 0.00048845 0.000476631 -1.11681e-05 -0.000507546 -0.000466734 0.0010967 0.00100724 0.000556573 0.000251653 -1.00158e-05 -0.00172393 -0.00282017 -0.000850137 0.000657547 -0.00083792 -0.000662168 -0.0021817 -0.000556625 -0.00168941 -0.00311648 -0.000343567 5.49103e-05 -0.000563692 -7.7337e-05 -0.000128965
internal_weight=1.15516e+06 811367 343798 336479 226566 718312 715099 100685 93055 109913 23235 8617 614414 152855 5932 78227 10637 148339 461559 64221 84438 5482 78956 9113 4209 77450 45692 18249 17912 23839
internal_count=1155165 811367 343798 336479 226566 718312 715099 100685 93055 109913 23235 8617 614414 152855 5932 78227 10637 148339 461559 64221 84438 5482 78956 9113 4209 77450 45692 18249 17912 23839
is_linear=0
shrinkage=0.03


Tree=14
num_leaves=31
num_cat=0
split_feature=11 8 0 9 1 0 8 8 11 8 0 0 8 1 0 8 11 9 0 6 10 11 8 8 10 8 9 10 9 11
split_gain=225.031 62.7595 59.9903 53.5302 35.5749 26.0518 24.8791 23.3366 22.8542 20.2736 19.6945 19.5753 19.6916 17.9406 17.2217 22.7079 16.6844 16.2722 15.391 14.3705 13.9201 12.9272 12.5207 12.5061 12.4294 12.1116 13.7596 11.9808 11.1042 10.4833
threshold=0.65851647890038811 0.0013685269754058977 0.74098239277209355 -0.07877551158675726 0.0052851943649489643 0.92626829578901926 0.0078387228712488172 -0.0029155691960836435 5.8844304085780248 -0.001903895992832329 0.86041847971724039 0.71815262986303452 -0.0067324834395418318 -0.047028510304513473 1.7056818778594052 0.01214428336384338 0.60406278165264349 -0.095114572997397909 0.64102269002706314 0.68821144755170083 -24.814184270410077 -9.1081615861093255 0.014844388615352075 -0.001903895992832329 -0.26741152811601282 0.0047363073330882214 -0.10412518502123133 1.5042735265160507 -0.11938662816219102 24.977877555861806
decision_type=8 2 2 2 2 2 2 2 10 2 2 2 2 2 2 2 10 2 2 2 8 10 2 2 8 2 2 10 2 10
left_child=3 2 7 18 9 6 25 13 -7 10 -4 12 -5 -2 15 16 -13 -8 -1 -19 -6 -16 -17 -22 29 26 -3 -11 -15 -10
right_child=1 5 4 11 20 8 17 -9 24 27 -12 14 -14 28 21 22 -18 19 -20 -21 23 -23 -24 -25 -26 -27 -28 -29 -30 -31
leaf_value=0.0038644741920191056 0.0046987805805912466 -0.0041837387747157475 0.00038342324272180487 0.0031476363379834161 -0.005002708644981862 0.00048492226117936513 0.0041538772291061371 -0.00035000914827277999 0.0017039491623390016 0.0003945422816798884 -0.00055889969292519538 -0.00097758934473753307 -0.00035954309093971782 0.00017303403795327705 -0.0095702186325479794 0.00089109721847543618 -0.0030528589136112633 -0.00086877092862298747 0.00072204799422565338 -0.003507476414093132 -0.0013181612462478743 -0.002367772070320788 -0.00055680984346187707 -0.00048008605990760948 -0.0022748842995636708 0.00063980332247837429 -8.5637489037489588e-05 -0.00090500629991923059 0.0022328141205000479 -0.0031617735093868852
leaf_weight=1620 2059 752 26219 2034 725 533949 536 4608 1641 76598 83594 196478 4936 3262 236 8544 3551 18030 10495 2072 27106 4614 14492 39242 4201 29775 37799 6964 8507 526
leaf_count=1620 2059 752 26219 2034 725 533949 536 4608 1641 76598 83594 196478 4936 3262 236 8544 3551 18030 10495 2072 27106 4614 14492 39242 4201 29775 37799 6964 8507 526
internal_value=8.9079e-07 0.00021926 -0.00015535 -0.000801994 -0.000272424 0.000385285 -9.0389e-05 0.0014984 0.000463611 -6.59137e-05 -0.000333883 -0.000902303 0.000663529 0.00211457 -0.000950202 -0.000911728 -0.00101445 -0.00100324 0.00114252 -0.00114092 -0.000867759 -0.00271905 -1.96526e-05 -0.000822522 -0.00132286 0.000185297 -0.000165666 0.000286202 0.00166217 0.000521407
internal_weight=1.15516e+06 908165 278884 247000 260448 629281 88964 18436 540317 193375 109813 234885 6970 13828 227915 223065 200029 20638 12115 20102 67073 4850 23036 66348 6368 68326 38551 83562 11769 2167
internal_count=1155165 908165 278884 247000 260448 629281 88964 18436 540317 193375 109813 234885 6970 13828 227915 223065 200029 20638 12115 20102 67073 4850 23036 66348 6368 68326 38551 83562 11769 2167
is_linear=0
shrinkage=0.03


Tree=15
num_leaves=31
num_cat=0
split_feature=12 11 0 8 8 8 0 2 0 8 8 11 8 11 8 1 5 8 0 5 1 11 10 10 10 11 10 1 10 10
split_gain=381.576 77.2948 37.6779 38.8397 26.5529 29.4381 49.4844 26.2617 22.2001 21.2189 20.314 19.4981 17.9699 18.3985 17.6393 17.4552 17.036 16.6404 18.664 15.7239 15.2821 16.5063 21.4036 15.0076 17.1953 14.7153 14.4706 14.4481 13.5871 13.391
threshold=1.0000000180025095e-35 0.98311580545262467 0.79345081542856921 0.0048013452629132739 -0.014404517255218139 -0.0020414289314229085 0.68774463914594541 1.0255664211236173 0.74098239277209355 0.016963256692530852 -0.0073779524130469353 0.67792728850670458 0.01214428336384338 -7.990667137557705 -0.0088449590845055565 -0.0061044813225658206 -0.015578111763999774 -0.0067324834395418318 0.68774463914594541 0.0058410643763266894 0.028431635034602155 -2.1041986271475128 4.8936244339361377 9.1533639761760046 23.072339801746232 -26.3803347158462 9.1533639761760046 0.0033087763384522912 -19.959504996008906 12.079256998125901
decision_type=10 8 2 2 2 2 2 2 2 2 2 8 2 10 2 2 2 2 2 2 2 10 10 10 10 8 10 2 8 8
left_child=1 8 17 7 -3 6 16 14 10 26 -1 12 13 -5 -4 -8 -6 18 -2 -11 23 -22 -23 -10 -25 -16 -7 -13 -19 -29
right_child=2 4 3 11 5 9 15 -9 20 19 -12 27 -14 -15 25 -17 -18 28 -20 -21 21 22 -24 24 -26 -27 -28 29 -30 -31
leaf_value=0.0040565987707595801 0.0031019078759678175 0.0026709857105834353 -0.0024338121583570541 0.0032153840279780413 -0.00011155391212557184 0.00053112095148029695 0.000238896172128902 -0.0017023546808928125 -0.00079110504444154274 -0.0001056202364080083 0.00022447857590533106 0.00051739332116038084 -1.2070534851977242e-05 -0.0013240551672915584 0.0048074283826467909 -0.00058799805780968136 0.0035540229951694655 -0.0040467092216759371 0.00017280739051479379 -0.0025388204746661126 -0.0037429818985726584 0.00083448069706125655 -0.0027118973585798442 0.00033967885060978345 -0.0016648575855783721 -0.00090330710564719293 0.0016014183268998291 0.00045217013972155594 -9.8816944941632791e-05 -0.00091733289811867565
leaf_weight=1704 3265 4847 6962 821 1535 583029 42390 60060 46854 16631 4628 22534 15522 36875 407 50157 4429 817 4896 2792 2661 3108 3018 27110 4489 141678 11598 9350 19778 20530
leaf_count=1704 3265 4847 6962 821 1535 583029 42390 60060 46854 16631 4628 22534 15522 36875 407 50157 4429 817 4896 2792 2661 3108 3018 27110 4489 141678 11598 9350 19778 20530
internal_value=-2.77858e-06 0.000352175 -0.00084082 -0.000935793 0.000457952 0.000442893 -3.84989e-05 -0.00117267 -0.000458773 0.000520127 0.00125626 -0.000466856 -0.000871355 -0.0012251 -0.000959201 -0.000209217 0.0026101 0.000198572 0.00134505 -0.000455551 -0.000583288 -0.00176982 -0.000912184 -0.000450352 5.48122e-05 -0.000886924 0.000552002 -5.60938e-05 -0.000255594 -0.00048869
internal_weight=1.15448e+06 810980 343495 314739 717408 712561 98511 209107 93572 614050 6332 105632 53218 37696 149047 92547 5964 28756 8161 19423 87240 8787 6126 78453 31599 142085 594627 52414 20595 29880
internal_count=1154475 810980 343495 314739 717408 712561 98511 209107 93572 614050 6332 105632 53218 37696 149047 92547 5964 28756 8161 19423 87240 8787 6126 78453 31599 142085 594627 52414 20595 29880
is_linear=0
shrinkage=0.03


Tree=16
num_leaves=31
num_cat=0
split_feature=12 11 9 8 2 8 9 9 11 1 8 8 8 8 11 1 11 10 2 1 10 8 2 8 10 1 10 0 0 10
split_gain=359.025 72.7266 36.5012 35.3692 35.8266 24.9835 38.7893 22.607 18.8959 18.1411 29.9586 17.1714 15.8756 15.7118 20.4352 14.8498 14.6176 18.9798 13.8201 13.3488 14.4606 13.1583 17.9347 13.436 12.9321 12.9128 12.2244 11.6377 11.2611 10.752
threshold=1.0000000180025095e-35 0.98311580545262467 -0.07877551158675726 0.0048013452629132739 0.99978455397218791 -0.014404517255218139 -0.12814207355139737 -0.07877551158675726 0.67792728850670458 -0.032004071521683337 -0.0020414289314229085 1.0000000180025095e-35 -0.0032467264729656863 0.01214428336384338 -7.990667137557705 0.028431635034602155 -2.1041986271475128 4.8936244339361377 1.0818837048131518 -0.0061044813225658206 23.072339801746232 0.0010857752501857631 0.9613162382917475 0.0095176139944818001 -36.35120762356231 0.0033087763384522912 12.079256998125901 1.5694498641168797 0.68774463914594541 -4.5065208796049001
decision_type=10 8 2 2 2 2 2 2 8 2 2 2 2 2 10 2 10 10 2 2 8 2 2 2 10 2 8 2 2 10
left_child=1 7 -2 4 -4 19 18 28 13 12 -11 24 -8 14 -5 21 29 -18 -7 -3 -21 22 -9 -23 -6 -10 -27 -15 -1 -17
right_child=2 5 3 8 11 6 9 15 25 10 -12 -13 -14 27 -16 16 17 -19 -20 20 -22 23 -24 -25 -26 26 -28 -29 -30 -31
leaf_value=0.0046399347835356904 0.00075623186235565846 0.0035049501295794511 -0.0007647112670154763 0.0033815734108963024 -0.0027738120095920898 -0.0020206966417530346 0.0029772190768260175 -6.3823395464406572e-05 0.00047351922970556424 -8.2166051458446227e-05 0.00050968303324071024 -0.0011960172987960079 0.00036158055275891407 0.00020227293271654092 -0.0012569779661037784 -0.0057897843331116174 0.00073533488183566355 -0.0026374079185870415 0.0059557830646156159 0.004968151030618706 -0.0022131468041411799 0.00030058596131010571 -0.001365765179127044 -0.0008852486534748086 -0.0016242930058268446 0.00044331243283094878 -0.00086340712977335998 -0.0027940600061146193 0.00087893348562916918 -0.0019136707243231875
leaf_weight=891 12799 3625 126761 874 13385 6806 4765 16443 24416 88101 608965 55388 3723 14708 38050 1142 3065 2942 201 356 866 29077 22642 12210 25839 9363 20645 1267 3675 1485
leaf_count=891 12799 3625 126761 874 13385 6806 4765 16443 24416 88101 608965 55388 3723 14708 38050 1142 3065 2942 201 356 866 29077 22642 12210 25839 9363 20645 1267 3675 1485
internal_value=-2.69521e-06 0.00034161 -0.000815596 -0.00087644 -0.00109448 0.000444213 0.000429606 -0.000445009 -0.000434899 0.000451668 0.000434876 -0.00153626 0.00183032 -0.000827602 -0.00115274 -0.00055065 -0.00173303 -0.000916023 -0.00179138 0.00259086 -0.00011836 -0.000423593 -0.000818119 -5.00352e-05 -0.00201664 -3.87118e-05 -0.000455589 -3.51987e-05 0.00161359 -0.00359998
internal_weight=1.15448e+06 810980 343495 330696 221373 717408 712561 93572 109323 705554 697066 94612 8488 54899 38924 89006 8634 6007 7007 4847 1222 80372 39085 41287 39224 54424 30008 15975 4566 2627
internal_count=1154475 810980 343495 330696 221373 717408 712561 93572 109323 705554 697066 94612 8488 54899 38924 89006 8634 6007 7007 4847 1222 80372 39085 41287 39224 54424 30008 15975 4566 2627
is_linear=0
shrinkage=0.03


Tree=17
num_leaves=31
num_cat=0
split_feature=11 8 0 9 1 0 8 8 8 9 11 0 8 0 0 10 6 0 8 9 8 0 8 8 11 10 11 0 8 10
split_gain=184.725 51.3785 52.7602 47.8488 30.4584 24.9287 25.7325 20.6997 18.9008 18.7479 18.4247 17.7945 18.4519 17.2945 17.0367 15.6728 15.274 14.1938 16.1999 13.5117 13.4158 13.4152 12.5649 12.8882 12.3728 12.1294 11.6297 11.5794 15.7204 10.6826
threshold=0.65851647890038811 0.0013685269754058977 0.74098239277209355 -0.07877551158675726 0.0052851943649489643 0.96058823439087526 0.0078387228712488172 -0.0032467264729656863 -0.0020414289314229085 -0.095114572997397909 5.8844304085780248 0.71815262986303452 -0.0062841644334804998 0.5327529447559064 0.8636035447999687 -0.41927193629125364 0.78455792181986606 1.8269289522920575 0.01214428336384338 -0.12814207355139737 0.014191900954910327 0.64102269002706314 -0.001903895992832329 -0.013274867540896041 0.60406278165264349 1.5042735265160507 -7.0931401552072373 1.217970155305113 0.017629572539073223 -41.049201742657495
decision_type=8 2 2 2 2 2 2 2 2 2 10 2 2 2 2 8 2 2 2 2 2 2 2 2 10 10 10 2 2 8
left_child=3 2 7 21 8 6 -3 13 14 -8 27 12 -5 -2 -4 -12 -11 18 24 -15 -20 -1 23 -6 -13 -10 -19 29 -29 -7
right_child=1 5 4 11 22 10 9 -9 25 16 15 17 -14 19 -16 -17 -18 26 20 -21 -22 -23 -24 -25 -26 -27 -28 28 -30 -31
leaf_value=0.0036779033141234093 0.0049245081812558629 0.00020696610432617319 0.00033104682246584753 0.0029056291762257621 0.002331823245641412 -0.0034901417291741533 0.0040213526292069294 -0.00020659389311300592 0.00037784734500263719 -0.00073450333677932704 0.0010342275884685727 -0.00089674364908525514 -0.00039225857651406141 -0.00014756408955754574 -0.000543550644401106 -0.0022840460263740259 -0.0035669805559108815 -0.0093329166749102858 0.00096032373136584962 0.0022140979559439732 -0.00058306900329281673 0.00072356387131658722 -0.00046183802894222183 -0.0014128640713585302 -0.0026821343173469648 -0.0009133623390445338 -0.0023257869446942046 0.00024638844292361749 -0.0014932233666815273 0.00053494750591453772
leaf_weight=1596 1633 99992 26637 2246 853 594 710 5156 78538 27488 1880 197537 4765 2899 80959 4014 1828 229 7413 8766 16026 10420 39603 26658 3558 7142 3142 81308 4960 405925
leaf_count=1596 1633 99992 26637 2246 853 594 710 5156 78538 27488 1880 197537 4765 2899 80959 4014 1828 229 7413 8766 16026 10420 39603 26658 3558 7142 3142 81308 4960 405925
internal_value=-2.61437e-06 0.000195329 -0.000143601 -0.000730123 -0.000253467 0.000345658 -2.4284e-05 0.00140647 -6.22537e-05 -0.000794487 0.000442116 -0.000824578 0.000663831 0.00203213 -0.000327003 -0.00122511 -0.000911236 -0.000870379 -0.00084135 0.00162692 -9.48136e-05 0.00111624 -0.000804082 -0.00129664 -0.000928349 0.00027018 -0.00280295 0.000462064 0.000146333 0.000529058
internal_weight=1.15448e+06 907543 278844 246932 260390 628699 130018 18454 193276 30026 498681 234916 7011 13298 107596 5894 29316 227905 224534 11665 23439 12016 67114 27511 201095 85680 3371 492787 86268 406519
internal_count=1154475 907543 278844 246932 260390 628699 130018 18454 193276 30026 498681 234916 7011 13298 107596 5894 29316 227905 224534 11665 23439 12016 67114 27511 201095 85680 3371 492787 86268 406519
is_linear=0
shrinkage=0.03


Tree=18
num_leaves=31
num_cat=0
split_feature=12 11 0 8 8 9 2 9 7 8 9 8 11 12 11 1 11 10 8 9 0 10 2 1 0 10 9 7 10 0
split_gain=330.025 64.1163 33.3042 34.1853 23.5482 36.5344 23.3449 20.6332 18.7502 18.767 17.5421 16.9311 16.3526 14.4115 13.9465 13.9277 14.2974 18.4572 13.4977 13.3623 13.3452 18.3877 13.087 12.619 13.6962 11.8647 11.4615 11.427 11.0956 17.3272
threshold=1.0000000180025095e-35 0.98311580545262467 0.79345081542856921 0.0048013452629132739 -0.014404517255218139 -0.12814207355139737 1.0260762183223708 -0.10412518502123133 -0.049032866331970362 0.0013685269754058977 -0.048599598062336172 -0.0088449590845055565 1.7460539994771529 0.10781674292303688 -26.3803347158462 0.028431635034602155 -2.1041986271475128 4.8936244339361377 0.0049267532777638743 -0.095114572997397909 1.3050392159006454 8.6720269800581331 1.0818837048131518 -0.0061044813225658206 1.1835061118360313 6.0275460815399571 -0.023934887045629905 -0.027391574071717387 9.1533639761760046 0.85408499330624055
decision_type=10 8 2 2 2 2 2 2 2 2 2 2 8 10 8 2 10 10 2 2 2 8 2 2 2 8 2 2 10 2
left_child=1 7 10 6 23 22 11 -1 18 -10 -2 -4 13 27 -13 28 -17 -18 -7 -8 26 -22 -6 -3 -25 -21 -14 -5 29 -9
right_child=2 4 3 12 5 8 19 15 9 -11 -12 14 20 -15 -16 16 17 -19 -20 25 21 -23 -24 24 -26 -27 -28 -29 -30 -31
leaf_value=0.0024095134185916074 0.0013584783280861212 0.0033967365149098088 -0.0023359229220053508 -0.0017786477709896161 -0.0019688961229330287 0.00094771625420482909 0.0032220772951601761 0.0003526552985863553 3.977398482856657e-05 0.00044783616087585909 -0.00027661736416335344 0.0047139203198306827 0.0013040231514782456 -5.8481282951024798e-06 -0.00083884094802739019 -0.0034550310058573414 0.00080150914325728586 -0.002498652017417505 0.00039974439048462977 -0.0010254691509433451 0.00117888327819747 -0.0028413730801043228 0.0057930658603747472 -0.0017027899124690507 0.0062776056891566045 -0.0019341759620330324 -4.3329227359029727e-05 -0.00072182478256176694 7.0886566751538439e-05 -0.00095459620102942796
leaf_weight=2277 8301 3625 6985 12945 6806 93729 513 12002 135318 405283 20455 408 6910 17234 142254 2659 3106 2995 71224 19193 1530 3090 201 981 241 39754 31958 31965 32499 38034
leaf_count=2277 8301 3625 6985 12945 6806 93729 513 12002 135318 405283 20455 408 6910 17234 142254 2659 3106 2995 71224 19193 1530 3090 201 981 241 39754 31958 31965 32499 38034
internal_value=-2.53611e-06 0.00032757 -0.000781915 -0.000871206 0.000423909 0.000409728 -0.00109343 -0.000411015 0.000431139 0.0003457 0.000195285 -0.000893579 -0.00043126 -0.00074351 -0.000822936 -0.000481398 -0.00161886 -0.000818073 0.00071113 -0.00159637 1.48752e-05 -0.00150934 -0.00174573 0.00250798 -0.000126075 -0.00163836 0.00019613 -0.00102652 -0.000360633 -0.000640969
internal_weight=1.15448e+06 810980 343495 314739 717408 712561 209107 93572 705554 540601 28756 149647 105632 62144 142662 91295 8760 6101 164953 59460 43488 4620 7007 4847 1222 58947 38868 44910 82535 50036
internal_count=1154475 810980 343495 314739 717408 712561 209107 93572 705554 540601 28756 149647 105632 62144 142662 91295 8760 6101 164953 59460 43488 4620 7007 4847 1222 58947 38868 44910 82535 50036
is_linear=0
shrinkage=0.03


Tree=19
num_leaves=31
num_cat=0
split_feature=12 11 9 8 2 8 9 9 7 8 8 11 8 11 1 11 10 8 1 9 0 2 8 2 8 1 8 10 5 0
split_gain=310.521 60.3269 31.9114 31.1719 31.7979 22.1566 34.3748 19.4139 17.642 17.6578 16.0182 15.9504 14.6267 19.4336 13.1045 13.4523 17.3666 12.7406 12.7031 12.6328 12.4207 12.3142 10.8967 18.2727 12.5946 10.8604 10.5456 10.4939 9.62827 9.38819
threshold=1.0000000180025095e-35 0.98311580545262467 -0.07877551158675726 0.0048013452629132739 0.99978455397218791 -0.014404517255218139 -0.12814207355139737 -0.10412518502123133 -0.049032866331970362 0.0013685269754058977 -0.0053361371632855851 0.55527588960692731 0.01214428336384338 -7.990667137557705 0.028431635034602155 -2.1041986271475128 4.8936244339361377 0.0068542331008228019 0.0033087763384522912 -0.034724015407668223 0.73055156978126889 1.0818837048131518 0.0010857752501857631 0.99549825046390361 0.0095176139944818001 0.0076333782123046631 0.014191900954910327 -4.5065208796049001 -0.03578204531292397 0.5327529447559064
decision_type=10 8 2 2 2 2 2 2 2 2 2 8 2 10 2 10 10 2 2 2 2 2 2 2 2 2 2 10 2 2
left_child=1 7 28 4 -4 20 21 -1 17 -10 19 12 13 -5 22 27 -17 -8 -13 -6 -3 29 23 -9 -24 -12 -14 -16 -2 -7
right_child=2 5 3 11 10 6 8 14 9 -11 25 18 26 -15 15 16 -18 -19 -20 -21 -22 -23 24 -25 -26 -27 -28 -29 -30 -31
leaf_value=0.0023372311779808453 0.0041532714881981634 0.0062427182439196323 -0.00070936631210547342 0.0033253111241180349 -0.0036613443355544111 0.0022990754881014011 0.0008415534070225451 -0.00020099750114194892 3.8580779984115937e-05 0.0004344010516601055 -0.00095279315301538743 0.00045245632629261419 0.0011418117702546339 -0.001200086744946644 -0.0055080163040864567 0.00077746461735660188 -0.0024236949525904953 0.00023160732060100556 -0.00045432863388592725 -0.0017095497359753764 0.0018260520181615568 0.0056193603225069026 0.00033285748847725256 -0.0015045444646185828 -0.00081283366874977594 -0.0016459030789595366 -0.00053440856080817192 -0.0017005371687455258 0.00051420164812696078 -0.002204777979225496
leaf_weight=2277 692 665 126761 874 4689 445 123907 25504 135318 405283 43024 25153 4956 36644 1152 3106 2995 41046 31088 8240 4182 201 29159 15603 12269 38659 10608 1507 12107 6361
leaf_count=2277 692 665 126761 874 4689 445 123907 25504 135318 405283 43024 25153 4956 36644 1152 3106 2995 41046 31088 8240 4182 201 29159 15603 12269 38659 10608 1507 12107 6361
internal_value=-2.45986e-06 0.000317744 -0.000758458 -0.000815349 -0.00102004 0.000411192 0.000397436 -0.000398683 0.000418205 0.000335329 -0.00143625 -0.000400831 -0.000773831 -0.00109458 -0.000466955 -0.0015703 -0.000793517 0.000689796 -4.87283e-05 -0.00241767 0.00243275 -0.00169335 -0.000349812 -0.000695861 -6.37038e-06 -0.00128087 -4.57857e-07 -0.00335138 0.00071122 -0.00190983
internal_weight=1.15448e+06 810980 343495 330696 221373 717408 712561 93572 705554 540601 94612 109323 53082 37518 91295 8760 6101 164953 56241 12929 4847 7007 82535 41107 41428 81683 15564 2659 12799 6806
internal_count=1154475 810980 343495 330696 221373 717408 712561 93572 705554 540601 94612 109323 53082 37518 91295 8760 6101 164953 56241 12929 4847 7007 82535 41107 41428 81683 15564 2659 12799 6806
is_linear=0
shrinkage=0.03


Tree=20
num_leaves=31
num_cat=0
split_feature=12 11 0 8 6 2 8 1 8 8 0 0 8 12 10 9 9 11 8 0 10 10 0 2 11 8 10 11 11 11
split_gain=290.72 59.9605 34.5582 30.8977 25.9843 20.8002 22.703 35.7127 22.6216 18.9032 25.131 18.1477 17.4349 17.3045 16.9536 16.1902 15.4625 15.3488 16.0816 14.5688 14.5157 13.8065 13.7593 13.713 13.4064 12.3656 11.9534 11.5831 20.53 12.9965
threshold=1.0000000180025095e-35 0.98311580545262467 0.79345081542856921 -7.8220763444094652e-05 0.50753509996339086 0.7633546608163575 -0.0020414289314229085 -0.009709013148383917 -0.014404517255218139 0.0078387228712488172 0.92216904751190676 0.75079814520723775 -0.0073779524130469353 0.0019995886551341904 -22.741566223023884 -0.03867154206580823 -0.049501853418129231 0.15549851508914173 0.01214428336384338 0.88453367502494895 4.6619074031327523 14.85008691245805 1.2618881691858352 1.309071289835892 4.5766963727790495 -0.010218432377175417 15.680196262978322 0.59139938094036115 0.65851647890038811 -9.1081615861093255
decision_type=10 8 2 2 2 2 2 2 2 2 2 2 2 8 10 2 2 8 2 2 8 10 2 2 10 2 10 10 10 10
left_child=1 11 16 4 19 -3 7 8 -7 22 -11 12 -1 -5 24 -9 -2 18 -15 25 -19 -21 -8 27 -6 -4 -14 29 -29 -13
right_child=2 5 3 13 14 6 9 15 -10 10 -12 23 26 17 -16 -17 -18 20 -20 21 -22 -23 -24 -25 -26 -27 -28 28 -30 -31
leaf_value=0.0035970431585492005 0.0013707163906314735 0.0028021527687097842 -0.0030802685712403213 -0.0034402603010372447 -0.0026129567124246844 0.0032230929713580733 0.00060709559368907293 -0.00099904064716450328 0.00048646942526490143 -0.00095010687673227374 0.00030441159144368286 -0.0017458940406310291 0.00082362667458596981 -0.0011516223091673774 -0.0014037489891787366 -2.777720095010249e-05 -0.00017291507553612333 0.00028264615290734488 7.6710294636068828e-05 -0.0013519700790827146 -0.00054042344660992856 0.00045423664514935772 1.3968123229340908e-05 -0.0036382128068352835 -0.010385600394862353 -4.5060943192836976e-05 -0.0030624113036322063 -0.0042681992265132633 -0.0007751163191835244 -0.00023963816110421853
leaf_weight=1817 8148 3241 1287 1929 13108 2946 422217 28203 35291 16061 136540 5565 4291 58081 24766 34163 20612 23171 11485 41502 114842 4191 38413 1252 203 19706 854 1878 7837 70222
leaf_count=1817 8148 3241 1287 1929 13108 2946 422217 28203 35291 16061 136540 5565 4291 58081 24766 34163 20612 23171 11485 41502 114842 4191 38413 1252 203 19706 854 1878 7837 70222
internal_value=1.11978e-06 0.000310865 -0.000730988 -0.000822081 -0.00124277 0.000404133 0.000393241 -2.44367e-05 0.000697401 0.000461768 0.000172355 -0.000402751 0.00107078 -0.000611705 -0.00186809 -0.000467049 0.00026431 -0.000585404 -0.000948788 -0.000885663 -0.000402216 -0.00118624 0.00055764 -0.000521038 -0.0027318 -0.000231295 0.000177967 -0.000475354 -0.00145071 -0.000350283
internal_weight=1.15382e+06 810791 343031 314271 104763 717075 713834 100603 38237 613231 152601 93716 6962 209508 38077 62366 28760 207579 69566 66686 138013 45693 460630 86754 13311 20993 5145 85502 9715 75787
internal_count=1153822 810791 343031 314271 104763 717075 713834 100603 38237 613231 152601 93716 6962 209508 38077 62366 28760 207579 69566 66686 138013 45693 460630 86754 13311 20993 5145 85502 9715 75787
is_linear=0
shrinkage=0.03


end of trees

feature_importances:
Column_8=174
Column_0=103
Column_11=84
Column_9=66
Column_10=57
Column_1=45
Column_12=41
Column_2=39
Column_6=9
Column_5=6
Column_7=6

parameters:
[boosting: gbdt]
[objective: regression]
[metric: rmse]
[tree_learner: serial]
[device_type: cpu]
[data_sample_strategy: bagging]
[data: ]
[valid: ]
[num_iterations: 500]
[learning_rate: 0.03]
[num_leaves: 31]
[num_threads: 10]
[seed: 0]
[deterministic: 0]
[force_col_wise: 0]
[force_row_wise: 0]
[histogram_pool_size: -1]
[max_depth: 6]
[min_data_in_leaf: 200]
[min_sum_hessian_in_leaf: 0.001]
[bagging_fraction: 0.8]
[pos_bagging_fraction: 1]
[neg_bagging_fraction: 1]
[bagging_freq: 5]
[bagging_seed: 3]
[bagging_by_query: 0]
[feature_fraction: 0.9]
[feature_fraction_bynode: 1]
[feature_fraction_seed: 2]
[extra_trees: 0]
[extra_seed: 6]
[early_stopping_round: 0]
[early_stopping_min_delta: 0]
[first_metric_only: 0]
[max_delta_step: 0]
[lambda_l1: 0.1]
[lambda_l2: 0.1]
[linear_lambda: 0]
[min_gain_to_split: 0]
[drop_rate: 0.1]
[max_drop: 50]
[skip_drop: 0.5]
[xgboost_dart_mode: 0]
[uniform_drop: 0]
[drop_seed: 4]
[top_rate: 0.2]
[other_rate: 0.1]
[min_data_per_group: 100]
[max_cat_threshold: 32]
[cat_l2: 10]
[cat_smooth: 10]
[max_cat_to_onehot: 4]
[top_k: 20]
[monotone_constraints: ]
[monotone_constraints_method: basic]
[monotone_penalty: 0]
[feature_contri: ]
[forcedsplits_filename: ]
[refit_decay_rate: 0.9]
[cegb_tradeoff: 1]
[cegb_penalty_split: 0]
[cegb_penalty_feature_lazy: ]
[cegb_penalty_feature_coupled: ]
[path_smooth: 0]
[interaction_constraints: ]
[verbosity: -1]
[saved_feature_importance_type: 0]
[use_quantized_grad: 0]
[num_grad_quant_bins: 4]
[quant_train_renew_leaf: 0]
[stochastic_rounding: 1]
[linear_tree: 0]
[max_bin: 255]
[max_bin_by_feature: ]
[min_data_in_bin: 3]
[bin_construct_sample_cnt: 200000]
[data_random_seed: 1]
[is_enable_sparse: 1]
[enable_bundle: 1]
[use_missing: 1]
[zero_as_missing: 0]
[feature_pre_filter: 1]
[pre_partition: 0]
[two_round: 0]
[header: 0]
[label_column: ]
[weight_column: ]
[group_column: ]
[ignore_column: ]
[categorical_feature: ]
[forcedbins_filename: ]
[precise_float_parser: 0]
[parser_config_file: ]
[objective_seed: 5]
[num_class: 1]
[is_unbalance: 0]
[scale_pos_weight: 1]
[sigmoid: 1]
[boost_from_average: 1]
[reg_sqrt: 0]
[alpha: 0.9]
[fair_c: 1]
[poisson_max_delta_step: 0.7]
[tweedie_variance_power: 1.5]
[lambdarank_truncation_level: 30]
[lambdarank_norm: 1]
[label_gain: ]
[lambdarank_position_bias_regularization: 0]
[eval_at: ]
[multi_error_top_k: 1]
[auc_mu_weights: ]
[num_machines: 1]
[local_listen_port: 12400]
[time_out: 120]
[machine_list_filename: ]
[machines: ]
[gpu_platform_id: -1]
[gpu_device_id: -1]
[gpu_use_dp: 0]
[num_gpu: 1]

end of parameters

pandas_categorical:null
